<?xml version="1.0"?>
<opencv_storage>
<cascade>
  <stageType>BOOST</stageType>
  <featureType>HAAR</featureType>
  <height>75</height>
  <width>75</width>
  <stageParams>
    <boostType>GAB</boostType>
    <minHitRate>9.9500000476837158e-01</minHitRate>
    <maxFalseAlarm>5.0000000000000000e-01</maxFalseAlarm>
    <weightTrimRate>9.4999999999999996e-01</weightTrimRate>
    <maxDepth>1</maxDepth>
    <maxWeakCount>100</maxWeakCount></stageParams>
  <featureParams>
    <maxCatCount>0</maxCatCount>
    <featSize>1</featSize>
    <mode>BASIC</mode></featureParams>
  <stageNum>3</stageNum>
  <stages>
    <!-- stage 0 -->
    <_>
      <maxWeakCount>2</maxWeakCount>
      <stageThreshold>-1.4201444387435913e-01</stageThreshold>
      <weakClassifiers>
        <_>
          <internalNodes>
            0 -1 3 -3.1783014535903931e-02</internalNodes>
          <leafValues>
            8.6026203632354736e-01 -9.7995990514755249e-01</leafValues></_>
        <_>
          <internalNodes>
            0 -1 5 -1.0818751156330109e-01</internalNodes>
          <leafValues>
            8.3794546127319336e-01 -9.8822093009948730e-01</leafValues></_></weakClassifiers></_>
    <!-- stage 1 -->
    <_>
      <maxWeakCount>3</maxWeakCount>
      <stageThreshold>-1.0254249572753906e+00</stageThreshold>
      <weakClassifiers>
        <_>
          <internalNodes>
            0 -1 1 -9.5958765596151352e-03</internalNodes>
          <leafValues>
            1. -9.6531790494918823e-01</leafValues></_>
        <_>
          <internalNodes>
            0 -1 2 -1.0468408465385437e-02</internalNodes>
          <leafValues>
            1. -8.7717032432556152e-01</leafValues></_>
        <_>
          <internalNodes>
            0 -1 4 -2.4463816080242395e-03</internalNodes>
          <leafValues>
            8.1706327199935913e-01 -9.6087843179702759e-01</leafValues></_></weakClassifiers></_>
    <!-- stage 2 -->
    <_>
      <maxWeakCount>1</maxWeakCount>
      <stageThreshold>1.</stageThreshold>
      <weakClassifiers>
        <_>
          <internalNodes>
            0 -1 0 1.4538535615429282e-03</internalNodes>
          <leafValues>
            1. -1.</leafValues></_></weakClassifiers></_></stages>
  <features>
    <_>
      <rects>
        <_>
          0 0 7 16 -1.</_>
        <_>
          0 8 7 8 2.</_></rects>
      <tilted>0</tilted></_>
    <_>
      <rects>
        <_>
          0 3 18 7 -1.</_>
        <_>
          9 3 9 7 2.</_></rects>
      <tilted>0</tilted></_>
    <_>
      <rects>
        <_>
          0 4 20 7 -1.</_>
        <_>
          10 4 10 7 2.</_></rects>
      <tilted>0</tilted></_>
    <_>
      <rects>
        <_>
          2 0 23 24 -1.</_>
        <_>
          2 8 23 8 3.</_></rects>
      <tilted>0</tilted></_>
    <_>
      <rects>
        <_>
          6 40 2 30 -1.</_>
        <_>
          6 50 2 10 3.</_></rects>
      <tilted>0</tilted></_>
    <_>
      <rects>
        <_>
          11 3 54 46 -1.</_>
        <_>
          11 3 27 23 2.</_>
        <_>
          38 26 27 23 2.</_></rects>
      <tilted>0</tilted></_></features></cascade>
</opencv_storage>
