<?xml version="1.0"?>
<opencv_storage>
<cascade>
  <stageType>BOOST</stageType>
  <featureType>HAAR</featureType>
  <height>40</height>
  <width>40</width>
  <stageParams>
    <boostType>GAB</boostType>
    <minHitRate>9.9500000476837158e-01</minHitRate>
    <maxFalseAlarm>5.0000000000000000e-01</maxFalseAlarm>
    <weightTrimRate>9.4999999999999996e-01</weightTrimRate>
    <maxDepth>1</maxDepth>
    <maxWeakCount>100</maxWeakCount></stageParams>
  <featureParams>
    <maxCatCount>0</maxCatCount>
    <featSize>1</featSize>
    <mode>BASIC</mode></featureParams>
  <stageNum>2</stageNum>
  <stages>
    <!-- stage 0 -->
    <_>
      <maxWeakCount>2</maxWeakCount>
      <stageThreshold>-2.8862917423248291e-01</stageThreshold>
      <weakClassifiers>
        <_>
          <internalNodes>
            0 -1 2 -1.1004112660884857e-01</internalNodes>
          <leafValues>
            7.5308644771575928e-01 -8.9700996875762939e-01</leafValues></_>
        <_>
          <internalNodes>
            0 -1 3 -1.0565175116062164e-01</internalNodes>
          <leafValues>
            6.0838079452514648e-01 -9.2844396829605103e-01</leafValues></_></weakClassifiers></_>
    <!-- stage 1 -->
    <_>
      <maxWeakCount>4</maxWeakCount>
      <stageThreshold>-5.4648536443710327e-01</stageThreshold>
      <weakClassifiers>
        <_>
          <internalNodes>
            0 -1 5 2.2671218961477280e-02</internalNodes>
          <leafValues>
            -7.1884059906005859e-01 8.4680849313735962e-01</leafValues></_>
        <_>
          <internalNodes>
            0 -1 0 -2.3945756256580353e-02</internalNodes>
          <leafValues>
            7.5458866357803345e-01 -6.5565794706344604e-01</leafValues></_>
        <_>
          <internalNodes>
            0 -1 1 1.4762420207262039e-02</internalNodes>
          <leafValues>
            -9.4363063573837280e-01 5.7358324527740479e-01</leafValues></_>
        <_>
          <internalNodes>
            0 -1 4 2.5401874154340476e-05</internalNodes>
          <leafValues>
            3.6139717698097229e-01 -9.5180654525756836e-01</leafValues></_></weakClassifiers></_></stages>
  <features>
    <_>
      <rects>
        <_>
          2 4 13 9 -1.</_>
        <_>
          2 7 13 3 3.</_></rects>
      <tilted>0</tilted></_>
    <_>
      <rects>
        <_>
          4 13 5 18 -1.</_>
        <_>
          4 19 5 6 3.</_></rects>
      <tilted>0</tilted></_>
    <_>
      <rects>
        <_>
          5 2 34 18 -1.</_>
        <_>
          5 2 17 9 2.</_>
        <_>
          22 11 17 9 2.</_></rects>
      <tilted>0</tilted></_>
    <_>
      <rects>
        <_>
          6 2 24 26 -1.</_>
        <_>
          6 2 12 13 2.</_>
        <_>
          18 15 12 13 2.</_></rects>
      <tilted>0</tilted></_>
    <_>
      <rects>
        <_>
          6 19 2 3 -1.</_>
        <_>
          6 20 2 1 3.</_></rects>
      <tilted>0</tilted></_>
    <_>
      <rects>
        <_>
          34 9 6 25 -1.</_>
        <_>
          37 9 3 25 2.</_></rects>
      <tilted>0</tilted></_></features></cascade>
</opencv_storage>
