<?xml version="1.0"?>
<opencv_storage>
<cascade>
  <stageType>BOOST</stageType>
  <featureType>HAAR</featureType>
  <height>40</height>
  <width>40</width>
  <stageParams>
    <boostType>GAB</boostType>
    <minHitRate>9.9500000476837158e-01</minHitRate>
    <maxFalseAlarm>5.0000000000000000e-01</maxFalseAlarm>
    <weightTrimRate>9.4999999999999996e-01</weightTrimRate>
    <maxDepth>1</maxDepth>
    <maxWeakCount>100</maxWeakCount></stageParams>
  <featureParams>
    <maxCatCount>0</maxCatCount>
    <featSize>1</featSize>
    <mode>BASIC</mode></featureParams>
  <stageNum>2</stageNum>
  <stages>
    <!-- stage 0 -->
    <_>
      <maxWeakCount>2</maxWeakCount>
      <stageThreshold>-2.2961011528968811e-01</stageThreshold>
      <weakClassifiers>
        <_>
          <internalNodes>
            0 -1 2 -1.0959392786026001e-01</internalNodes>
          <leafValues>
            8.3846151828765869e-01 -9.5918369293212891e-01</leafValues></_>
        <_>
          <internalNodes>
            0 -1 4 6.9648817181587219e-02</internalNodes>
          <leafValues>
            -9.1848188638687134e-01 7.2957354784011841e-01</leafValues></_></weakClassifiers></_>
    <!-- stage 1 -->
    <_>
      <maxWeakCount>3</maxWeakCount>
      <stageThreshold>-9.9927264451980591e-01</stageThreshold>
      <weakClassifiers>
        <_>
          <internalNodes>
            0 -1 0 -9.5937438309192657e-03</internalNodes>
          <leafValues>
            7.7165353298187256e-01 -9.0322577953338623e-01</leafValues></_>
        <_>
          <internalNodes>
            0 -1 3 3.1923271715641022e-02</internalNodes>
          <leafValues>
            -7.7986550331115723e-01 8.9579516649246216e-01</leafValues></_>
        <_>
          <internalNodes>
            0 -1 1 -6.0398066416382790e-03</internalNodes>
          <leafValues>
            6.8381863832473755e-01 -9.1288566589355469e-01</leafValues></_></weakClassifiers></_></stages>
  <features>
    <_>
      <rects>
        <_>
          0 1 10 4 -1.</_>
        <_>
          5 1 5 4 2.</_></rects>
      <tilted>0</tilted></_>
    <_>
      <rects>
        <_>
          2 19 2 16 -1.</_>
        <_>
          2 27 2 8 2.</_></rects>
      <tilted>0</tilted></_>
    <_>
      <rects>
        <_>
          4 1 32 20 -1.</_>
        <_>
          4 1 16 10 2.</_>
        <_>
          20 11 16 10 2.</_></rects>
      <tilted>0</tilted></_>
    <_>
      <rects>
        <_>
          5 6 20 5 -1.</_>
        <_>
          15 6 10 5 2.</_></rects>
      <tilted>0</tilted></_>
    <_>
      <rects>
        <_>
          7 3 7 24 -1.</_>
        <_>
          7 15 7 12 2.</_></rects>
      <tilted>0</tilted></_></features></cascade>
</opencv_storage>
