<?xml version="1.0"?>
<opencv_storage>
<cascade>
  <stageType>BOOST</stageType>
  <featureType>HAAR</featureType>
  <height>30</height>
  <width>40</width>
  <stageParams>
    <boostType>GAB</boostType>
    <minHitRate>9.9500000476837158e-01</minHitRate>
    <maxFalseAlarm>5.0000000000000000e-01</maxFalseAlarm>
    <weightTrimRate>9.4999999999999996e-01</weightTrimRate>
    <maxDepth>1</maxDepth>
    <maxWeakCount>100</maxWeakCount></stageParams>
  <featureParams>
    <maxCatCount>0</maxCatCount>
    <featSize>1</featSize>
    <mode>BASIC</mode></featureParams>
  <stageNum>6</stageNum>
  <stages>
    <!-- stage 0 -->
    <_>
      <maxWeakCount>5</maxWeakCount>
      <stageThreshold>-1.5819447040557861e+00</stageThreshold>
      <weakClassifiers>
        <_>
          <internalNodes>
            0 -1 12 -1.1649821698665619e-01</internalNodes>
          <leafValues>
            3.4031414985656738e-01 -8.8739943504333496e-01</leafValues></_>
        <_>
          <internalNodes>
            0 -1 9 6.1889477074146271e-02</internalNodes>
          <leafValues>
            -9.2772233486175537e-01 2.8096160292625427e-01</leafValues></_>
        <_>
          <internalNodes>
            0 -1 1 -2.0007561892271042e-02</internalNodes>
          <leafValues>
            2.7792763710021973e-01 -9.2473715543746948e-01</leafValues></_>
        <_>
          <internalNodes>
            0 -1 3 -9.0121077373623848e-03</internalNodes>
          <leafValues>
            8.0037593841552734e-01 -4.7953262925148010e-01</leafValues></_>
        <_>
          <internalNodes>
            0 -1 11 -1.4615094661712646e-01</internalNodes>
          <leafValues>
            4.6205809712409973e-01 -7.7390182018280029e-01</leafValues></_></weakClassifiers></_>
    <!-- stage 1 -->
    <_>
      <maxWeakCount>4</maxWeakCount>
      <stageThreshold>-1.2751741409301758e+00</stageThreshold>
      <weakClassifiers>
        <_>
          <internalNodes>
            0 -1 10 1.1187026277184486e-02</internalNodes>
          <leafValues>
            -8.3995038270950317e-01 6.1068701744079590e-01</leafValues></_>
        <_>
          <internalNodes>
            0 -1 19 1.5245238319039345e-03</internalNodes>
          <leafValues>
            -6.0863649845123291e-01 5.6322884559631348e-01</leafValues></_>
        <_>
          <internalNodes>
            0 -1 23 3.7105567753314972e-02</internalNodes>
          <leafValues>
            -4.9637663364410400e-01 6.4205849170684814e-01</leafValues></_>
        <_>
          <internalNodes>
            0 -1 6 4.4758850708603859e-03</internalNodes>
          <leafValues>
            -4.6864572167396545e-01 7.0993977785110474e-01</leafValues></_></weakClassifiers></_>
    <!-- stage 2 -->
    <_>
      <maxWeakCount>4</maxWeakCount>
      <stageThreshold>-1.3906636238098145e+00</stageThreshold>
      <weakClassifiers>
        <_>
          <internalNodes>
            0 -1 8 -3.6933161318302155e-02</internalNodes>
          <leafValues>
            6.1181432008743286e-01 -8.1795966625213623e-01</leafValues></_>
        <_>
          <internalNodes>
            0 -1 14 7.7783549204468727e-03</internalNodes>
          <leafValues>
            -5.3524136543273926e-01 8.3627623319625854e-01</leafValues></_>
        <_>
          <internalNodes>
            0 -1 7 1.1106025427579880e-02</internalNodes>
          <leafValues>
            -5.8006078004837036e-01 8.6447113752365112e-01</leafValues></_>
        <_>
          <internalNodes>
            0 -1 0 -5.4113980382680893e-02</internalNodes>
          <leafValues>
            5.4259824752807617e-01 -7.4259495735168457e-01</leafValues></_></weakClassifiers></_>
    <!-- stage 3 -->
    <_>
      <maxWeakCount>4</maxWeakCount>
      <stageThreshold>-1.6034103631973267e+00</stageThreshold>
      <weakClassifiers>
        <_>
          <internalNodes>
            0 -1 15 1.7950009554624557e-02</internalNodes>
          <leafValues>
            -7.8787881135940552e-01 1.</leafValues></_>
        <_>
          <internalNodes>
            0 -1 17 -9.5395430922508240e-02</internalNodes>
          <leafValues>
            4.9394705891609192e-01 -7.7988076210021973e-01</leafValues></_>
        <_>
          <internalNodes>
            0 -1 2 -1.4009650840307586e-05</internalNodes>
          <leafValues>
            -9.4211512804031372e-01 4.3618771433830261e-01</leafValues></_>
        <_>
          <internalNodes>
            0 -1 4 1.2529233470559120e-02</internalNodes>
          <leafValues>
            -4.7183853387832642e-01 8.8919079303741455e-01</leafValues></_></weakClassifiers></_>
    <!-- stage 4 -->
    <_>
      <maxWeakCount>4</maxWeakCount>
      <stageThreshold>-1.7288857698440552e+00</stageThreshold>
      <weakClassifiers>
        <_>
          <internalNodes>
            0 -1 18 -6.9194108247756958e-02</internalNodes>
          <leafValues>
            1. -9.0086740255355835e-01</leafValues></_>
        <_>
          <internalNodes>
            0 -1 16 3.5825236700475216e-03</internalNodes>
          <leafValues>
            -6.3804847002029419e-01 1.</leafValues></_>
        <_>
          <internalNodes>
            0 -1 5 1.2635111343115568e-03</internalNodes>
          <leafValues>
            4.9639764428138733e-01 -8.7558430433273315e-01</leafValues></_>
        <_>
          <internalNodes>
            0 -1 21 5.3312573581933975e-03</internalNodes>
          <leafValues>
            -6.8636751174926758e-01 8.0584943294525146e-01</leafValues></_></weakClassifiers></_>
    <!-- stage 5 -->
    <_>
      <maxWeakCount>3</maxWeakCount>
      <stageThreshold>-7.9467213153839111e-01</stageThreshold>
      <weakClassifiers>
        <_>
          <internalNodes>
            0 -1 13 -1.9885070621967316e-02</internalNodes>
          <leafValues>
            1. -9.4793653488159180e-01</leafValues></_>
        <_>
          <internalNodes>
            0 -1 20 4.0048644877970219e-03</internalNodes>
          <leafValues>
            -8.4673559665679932e-01 1.</leafValues></_>
        <_>
          <internalNodes>
            0 -1 22 1.5393085050163791e-05</internalNodes>
          <leafValues>
            1. -7.4326401948928833e-01</leafValues></_></weakClassifiers></_></stages>
  <features>
    <_>
      <rects>
        <_>
          0 1 21 10 -1.</_>
        <_>
          7 1 7 10 3.</_></rects>
      <tilted>0</tilted></_>
    <_>
      <rects>
        <_>
          0 2 10 12 -1.</_>
        <_>
          5 2 5 12 2.</_></rects>
      <tilted>0</tilted></_>
    <_>
      <rects>
        <_>
          0 15 8 1 -1.</_>
        <_>
          4 15 4 1 2.</_></rects>
      <tilted>0</tilted></_>
    <_>
      <rects>
        <_>
          1 20 8 3 -1.</_>
        <_>
          1 21 8 1 3.</_></rects>
      <tilted>0</tilted></_>
    <_>
      <rects>
        <_>
          1 21 17 3 -1.</_>
        <_>
          1 22 17 1 3.</_></rects>
      <tilted>0</tilted></_>
    <_>
      <rects>
        <_>
          2 14 9 6 -1.</_>
        <_>
          5 14 3 6 3.</_></rects>
      <tilted>0</tilted></_>
    <_>
      <rects>
        <_>
          3 2 16 3 -1.</_>
        <_>
          3 3 16 1 3.</_></rects>
      <tilted>0</tilted></_>
    <_>
      <rects>
        <_>
          3 26 18 3 -1.</_>
        <_>
          3 27 18 1 3.</_></rects>
      <tilted>0</tilted></_>
    <_>
      <rects>
        <_>
          4 0 19 6 -1.</_>
        <_>
          4 2 19 2 3.</_></rects>
      <tilted>0</tilted></_>
    <_>
      <rects>
        <_>
          5 5 7 21 -1.</_>
        <_>
          5 12 7 7 3.</_></rects>
      <tilted>0</tilted></_>
    <_>
      <rects>
        <_>
          5 7 11 3 -1.</_>
        <_>
          5 8 11 1 3.</_></rects>
      <tilted>0</tilted></_>
    <_>
      <rects>
        <_>
          6 1 32 22 -1.</_>
        <_>
          6 1 16 11 2.</_>
        <_>
          22 12 16 11 2.</_></rects>
      <tilted>0</tilted></_>
    <_>
      <rects>
        <_>
          6 2 32 12 -1.</_>
        <_>
          6 2 16 6 2.</_>
        <_>
          22 8 16 6 2.</_></rects>
      <tilted>0</tilted></_>
    <_>
      <rects>
        <_>
          6 4 34 6 -1.</_>
        <_>
          6 4 17 3 2.</_>
        <_>
          23 7 17 3 2.</_></rects>
      <tilted>0</tilted></_>
    <_>
      <rects>
        <_>
          6 25 10 3 -1.</_>
        <_>
          6 26 10 1 3.</_></rects>
      <tilted>0</tilted></_>
    <_>
      <rects>
        <_>
          7 1 6 13 -1.</_>
        <_>
          9 1 2 13 3.</_></rects>
      <tilted>0</tilted></_>
    <_>
      <rects>
        <_>
          7 6 6 2 -1.</_>
        <_>
          9 6 2 2 3.</_></rects>
      <tilted>0</tilted></_>
    <_>
      <rects>
        <_>
          9 1 26 14 -1.</_>
        <_>
          9 1 13 7 2.</_>
        <_>
          22 8 13 7 2.</_></rects>
      <tilted>0</tilted></_>
    <_>
      <rects>
        <_>
          10 2 30 12 -1.</_>
        <_>
          10 2 15 6 2.</_>
        <_>
          25 8 15 6 2.</_></rects>
      <tilted>0</tilted></_>
    <_>
      <rects>
        <_>
          12 8 2 3 -1.</_>
        <_>
          12 9 2 1 3.</_></rects>
      <tilted>0</tilted></_>
    <_>
      <rects>
        <_>
          15 0 16 4 -1.</_>
        <_>
          15 0 8 2 2.</_>
        <_>
          23 2 8 2 2.</_></rects>
      <tilted>0</tilted></_>
    <_>
      <rects>
        <_>
          17 3 10 4 -1.</_>
        <_>
          22 3 5 4 2.</_></rects>
      <tilted>0</tilted></_>
    <_>
      <rects>
        <_>
          18 19 3 4 -1.</_>
        <_>
          18 21 3 2 2.</_></rects>
      <tilted>0</tilted></_>
    <_>
      <rects>
        <_>
          32 5 8 19 -1.</_>
        <_>
          36 5 4 19 2.</_></rects>
      <tilted>0</tilted></_></features></cascade>
</opencv_storage>
