<?xml version="1.0"?>
<opencv_storage>
<stage0>
  <maxWeakCount>5</maxWeakCount>
  <stageThreshold>-1.5819447040557861e+00</stageThreshold>
  <weakClassifiers>
    <_>
      <internalNodes>
        0 -1 198868 -1.1649821698665619e-01</internalNodes>
      <leafValues>
        3.4031414985656738e-01 -8.8739943504333496e-01</leafValues></_>
    <_>
      <internalNodes>
        0 -1 173598 6.1889477074146271e-02</internalNodes>
      <leafValues>
        -9.2772233486175537e-01 2.8096160292625427e-01</leafValues></_>
    <_>
      <internalNodes>
        0 -1 4872 -2.0007561892271042e-02</internalNodes>
      <leafValues>
        2.7792763710021973e-01 -9.2473715543746948e-01</leafValues></_>
    <_>
      <internalNodes>
        0 -1 64669 -9.0121077373623848e-03</internalNodes>
      <leafValues>
        8.0037593841552734e-01 -4.7953262925148010e-01</leafValues></_>
    <_>
      <internalNodes>
        0 -1 197080 -1.4615094661712646e-01</internalNodes>
      <leafValues>
        4.6205809712409973e-01 -7.7390182018280029e-01</leafValues></_></weakClassifiers></stage0>
</opencv_storage>
