<?xml version="1.0"?>
<opencv_storage>
<cascade>
  <stageType>BOOST</stageType>
  <featureType>HAAR</featureType>
  <height>45</height>
  <width>45</width>
  <stageParams>
    <boostType>GAB</boostType>
    <minHitRate>9.9500000476837158e-01</minHitRate>
    <maxFalseAlarm>5.0000000000000000e-01</maxFalseAlarm>
    <weightTrimRate>9.4999999999999996e-01</weightTrimRate>
    <maxDepth>1</maxDepth>
    <maxWeakCount>100</maxWeakCount></stageParams>
  <featureParams>
    <maxCatCount>0</maxCatCount>
    <featSize>1</featSize>
    <mode>BASIC</mode></featureParams>
  <stageNum>2</stageNum>
  <stages>
    <!-- stage 0 -->
    <_>
      <maxWeakCount>3</maxWeakCount>
      <stageThreshold>-1.1138627529144287e+00</stageThreshold>
      <weakClassifiers>
        <_>
          <internalNodes>
            0 -1 3 -9.2549338936805725e-02</internalNodes>
          <leafValues>
            8.5483872890472412e-01 -9.6741342544555664e-01</leafValues></_>
        <_>
          <internalNodes>
            0 -1 0 -1.4106029644608498e-02</internalNodes>
          <leafValues>
            8.0531775951385498e-01 -8.8988369703292847e-01</leafValues></_>
        <_>
          <internalNodes>
            0 -1 4 5.7085663080215454e-02</internalNodes>
          <leafValues>
            -9.4247066974639893e-01 7.4343442916870117e-01</leafValues></_></weakClassifiers></_>
    <!-- stage 1 -->
    <_>
      <maxWeakCount>3</maxWeakCount>
      <stageThreshold>-1.0523489713668823e+00</stageThreshold>
      <weakClassifiers>
        <_>
          <internalNodes>
            0 -1 1 -3.9168871007859707e-03</internalNodes>
          <leafValues>
            6.9852942228317261e-01 -9.7002142667770386e-01</leafValues></_>
        <_>
          <internalNodes>
            0 -1 5 4.3499357998371124e-03</internalNodes>
          <leafValues>
            -8.5524523258209229e-01 7.6610070466995239e-01</leafValues></_>
        <_>
          <internalNodes>
            0 -1 2 -1.7951659858226776e-02</internalNodes>
          <leafValues>
            7.7291768789291382e-01 -8.9347743988037109e-01</leafValues></_></weakClassifiers></_></stages>
  <features>
    <_>
      <rects>
        <_>
          0 2 12 5 -1.</_>
        <_>
          6 2 6 5 2.</_></rects>
      <tilted>0</tilted></_>
    <_>
      <rects>
        <_>
          1 1 4 8 -1.</_>
        <_>
          1 5 4 4 2.</_></rects>
      <tilted>0</tilted></_>
    <_>
      <rects>
        <_>
          2 23 7 16 -1.</_>
        <_>
          2 31 7 8 2.</_></rects>
      <tilted>0</tilted></_>
    <_>
      <rects>
        <_>
          6 2 34 20 -1.</_>
        <_>
          6 2 17 10 2.</_>
        <_>
          23 12 17 10 2.</_></rects>
      <tilted>0</tilted></_>
    <_>
      <rects>
        <_>
          8 5 8 24 -1.</_>
        <_>
          8 17 8 12 2.</_></rects>
      <tilted>0</tilted></_>
    <_>
      <rects>
        <_>
          9 10 5 6 -1.</_>
        <_>
          9 12 5 2 3.</_></rects>
      <tilted>0</tilted></_></features></cascade>
</opencv_storage>
