<?xml version="1.0"?>
<opencv_storage>
<cascade>
  <stageType>BOOST</stageType>
  <featureType>HAAR</featureType>
  <height>40</height>
  <width>40</width>
  <stageParams>
    <boostType>GAB</boostType>
    <minHitRate>9.9500000476837158e-01</minHitRate>
    <maxFalseAlarm>5.0000000000000000e-01</maxFalseAlarm>
    <weightTrimRate>9.4999999999999996e-01</weightTrimRate>
    <maxDepth>1</maxDepth>
    <maxWeakCount>100</maxWeakCount></stageParams>
  <featureParams>
    <maxCatCount>0</maxCatCount>
    <featSize>1</featSize>
    <mode>BASIC</mode></featureParams>
  <stageNum>2</stageNum>
  <stages>
    <!-- stage 0 -->
    <_>
      <maxWeakCount>2</maxWeakCount>
      <stageThreshold>-2.9074195027351379e-01</stageThreshold>
      <weakClassifiers>
        <_>
          <internalNodes>
            0 -1 2 -1.0959392786026001e-01</internalNodes>
          <leafValues>
            8.1060606241226196e-01 -9.5951414108276367e-01</leafValues></_>
        <_>
          <internalNodes>
            0 -1 0 -5.7528097182512283e-02</internalNodes>
          <leafValues>
            6.6877222061157227e-01 -9.1758143901824951e-01</leafValues></_></weakClassifiers></_>
    <!-- stage 1 -->
    <_>
      <maxWeakCount>3</maxWeakCount>
      <stageThreshold>-1.0195449590682983e+00</stageThreshold>
      <weakClassifiers>
        <_>
          <internalNodes>
            0 -1 3 -9.8552731797099113e-03</internalNodes>
          <leafValues>
            8.7610620260238647e-01 -8.6090224981307983e-01</leafValues></_>
        <_>
          <internalNodes>
            0 -1 4 -1.7091071605682373e-01</internalNodes>
          <leafValues>
            8.6114907264709473e-01 -8.2077217102050781e-01</leafValues></_>
        <_>
          <internalNodes>
            0 -1 1 6.9736368022859097e-03</internalNodes>
          <leafValues>
            -9.4578081369400024e-01 6.6212952136993408e-01</leafValues></_></weakClassifiers></_></stages>
  <features>
    <_>
      <rects>
        <_>
          0 1 21 13 -1.</_>
        <_>
          7 1 7 13 3.</_></rects>
      <tilted>0</tilted></_>
    <_>
      <rects>
        <_>
          3 13 9 8 -1.</_>
        <_>
          3 17 9 4 2.</_></rects>
      <tilted>0</tilted></_>
    <_>
      <rects>
        <_>
          4 1 32 20 -1.</_>
        <_>
          4 1 16 10 2.</_>
        <_>
          20 11 16 10 2.</_></rects>
      <tilted>0</tilted></_>
    <_>
      <rects>
        <_>
          5 0 9 4 -1.</_>
        <_>
          5 2 9 2 2.</_></rects>
      <tilted>0</tilted></_>
    <_>
      <rects>
        <_>
          6 1 30 30 -1.</_>
        <_>
          6 1 15 15 2.</_>
        <_>
          21 16 15 15 2.</_></rects>
      <tilted>0</tilted></_></features></cascade>
</opencv_storage>
