<?xml version="1.0"?>
<opencv_storage>
<cascade>
  <stageType>BOOST</stageType>
  <featureType>HAAR</featureType>
  <height>30</height>
  <width>30</width>
  <stageParams>
    <boostType>GAB</boostType>
    <minHitRate>9.9500000476837158e-01</minHitRate>
    <maxFalseAlarm>5.0000000000000000e-01</maxFalseAlarm>
    <weightTrimRate>9.4999999999999996e-01</weightTrimRate>
    <maxDepth>1</maxDepth>
    <maxWeakCount>100</maxWeakCount></stageParams>
  <featureParams>
    <maxCatCount>0</maxCatCount>
    <featSize>1</featSize>
    <mode>BASIC</mode></featureParams>
  <stageNum>4</stageNum>
  <stages>
    <!-- stage 0 -->
    <_>
      <maxWeakCount>3</maxWeakCount>
      <stageThreshold>-1.4253813028335571e+00</stageThreshold>
      <weakClassifiers>
        <_>
          <internalNodes>
            0 -1 6 -1.1328916251659393e-01</internalNodes>
          <leafValues>
            7.1601206064224243e-01 -8.9579832553863525e-01</leafValues></_>
        <_>
          <internalNodes>
            0 -1 5 -1.1975049972534180e-01</internalNodes>
          <leafValues>
            5.6425714492797852e-01 -9.2322975397109985e-01</leafValues></_>
        <_>
          <internalNodes>
            0 -1 2 3.2974436879158020e-02</internalNodes>
          <leafValues>
            -9.4113898277282715e-01 3.9364674687385559e-01</leafValues></_></weakClassifiers></_>
    <!-- stage 1 -->
    <_>
      <maxWeakCount>3</maxWeakCount>
      <stageThreshold>-9.9646776914596558e-01</stageThreshold>
      <weakClassifiers>
        <_>
          <internalNodes>
            0 -1 6 -1.3128665089607239e-01</internalNodes>
          <leafValues>
            5.9516614675521851e-01 -8.2857143878936768e-01</leafValues></_>
        <_>
          <internalNodes>
            0 -1 0 -2.5610946118831635e-02</internalNodes>
          <leafValues>
            5.0452184677124023e-01 -8.4159666299819946e-01</leafValues></_>
        <_>
          <internalNodes>
            0 -1 12 2.4102918803691864e-02</internalNodes>
          <leafValues>
            -6.7241817712783813e-01 7.1011209487915039e-01</leafValues></_></weakClassifiers></_>
    <!-- stage 2 -->
    <_>
      <maxWeakCount>4</maxWeakCount>
      <stageThreshold>-1.3115569353103638e+00</stageThreshold>
      <weakClassifiers>
        <_>
          <internalNodes>
            0 -1 13 2.1657306700944901e-02</internalNodes>
          <leafValues>
            -6.7714285850524902e-01 7.8761059045791626e-01</leafValues></_>
        <_>
          <internalNodes>
            0 -1 7 -1.8342840671539307e-01</internalNodes>
          <leafValues>
            6.0611361265182495e-01 -6.9672924280166626e-01</leafValues></_>
        <_>
          <internalNodes>
            0 -1 1 -1.5796201303601265e-02</internalNodes>
          <leafValues>
            7.5471878051757813e-01 -5.8533775806427002e-01</leafValues></_>
        <_>
          <internalNodes>
            0 -1 8 -9.1142120072618127e-04</internalNodes>
          <leafValues>
            6.8441915512084961e-01 -6.5518993139266968e-01</leafValues></_></weakClassifiers></_>
    <!-- stage 3 -->
    <_>
      <maxWeakCount>5</maxWeakCount>
      <stageThreshold>-1.1444598436355591e+00</stageThreshold>
      <weakClassifiers>
        <_>
          <internalNodes>
            0 -1 11 -8.8273040950298309e-02</internalNodes>
          <leafValues>
            1. -6.5582656860351563e-01</leafValues></_>
        <_>
          <internalNodes>
            0 -1 4 6.4465042669326067e-04</internalNodes>
          <leafValues>
            5.5215370655059814e-01 -8.3685600757598877e-01</leafValues></_>
        <_>
          <internalNodes>
            0 -1 3 6.2843989580869675e-03</internalNodes>
          <leafValues>
            -8.8204067945480347e-01 5.9458643198013306e-01</leafValues></_>
        <_>
          <internalNodes>
            0 -1 9 -9.0247318148612976e-03</internalNodes>
          <leafValues>
            8.7199229001998901e-01 -6.3451880216598511e-01</leafValues></_>
        <_>
          <internalNodes>
            0 -1 10 -1.7415244132280350e-02</internalNodes>
          <leafValues>
            4.7577244043350220e-01 -8.8080805540084839e-01</leafValues></_></weakClassifiers></_></stages>
  <features>
    <_>
      <rects>
        <_>
          0 1 8 18 -1.</_>
        <_>
          4 1 4 18 2.</_></rects>
      <tilted>0</tilted></_>
    <_>
      <rects>
        <_>
          1 3 10 6 -1.</_>
        <_>
          1 5 10 2 3.</_></rects>
      <tilted>0</tilted></_>
    <_>
      <rects>
        <_>
          1 9 7 15 -1.</_>
        <_>
          1 14 7 5 3.</_></rects>
      <tilted>0</tilted></_>
    <_>
      <rects>
        <_>
          3 10 6 6 -1.</_>
        <_>
          3 13 6 3 2.</_></rects>
      <tilted>0</tilted></_>
    <_>
      <rects>
        <_>
          3 13 6 4 -1.</_>
        <_>
          3 15 6 2 2.</_></rects>
      <tilted>0</tilted></_>
    <_>
      <rects>
        <_>
          4 1 20 22 -1.</_>
        <_>
          4 1 10 11 2.</_>
        <_>
          14 12 10 11 2.</_></rects>
      <tilted>0</tilted></_>
    <_>
      <rects>
        <_>
          4 1 24 14 -1.</_>
        <_>
          4 1 12 7 2.</_>
        <_>
          16 8 12 7 2.</_></rects>
      <tilted>0</tilted></_>
    <_>
      <rects>
        <_>
          4 1 24 18 -1.</_>
        <_>
          4 1 12 9 2.</_>
        <_>
          16 10 12 9 2.</_></rects>
      <tilted>0</tilted></_>
    <_>
      <rects>
        <_>
          6 9 4 2 -1.</_>
        <_>
          6 10 4 1 2.</_></rects>
      <tilted>0</tilted></_>
    <_>
      <rects>
        <_>
          7 0 9 4 -1.</_>
        <_>
          7 2 9 2 2.</_></rects>
      <tilted>0</tilted></_>
    <_>
      <rects>
        <_>
          7 3 10 22 -1.</_>
        <_>
          7 3 5 11 2.</_>
        <_>
          12 14 5 11 2.</_></rects>
      <tilted>0</tilted></_>
    <_>
      <rects>
        <_>
          13 4 12 22 -1.</_>
        <_>
          19 4 6 22 2.</_></rects>
      <tilted>0</tilted></_>
    <_>
      <rects>
        <_>
          24 11 6 15 -1.</_>
        <_>
          27 11 3 15 2.</_></rects>
      <tilted>0</tilted></_>
    <_>
      <rects>
        <_>
          26 5 4 20 -1.</_>
        <_>
          28 5 2 20 2.</_></rects>
      <tilted>0</tilted></_></features></cascade>
</opencv_storage>
