<?xml version="1.0"?>
<opencv_storage>
<cascade>
  <stageType>BOOST</stageType>
  <featureType>HAAR</featureType>
  <height>40</height>
  <width>40</width>
  <stageParams>
    <boostType>GAB</boostType>
    <minHitRate>9.9500000476837158e-01</minHitRate>
    <maxFalseAlarm>5.0000000000000000e-01</maxFalseAlarm>
    <weightTrimRate>9.4999999999999996e-01</weightTrimRate>
    <maxDepth>1</maxDepth>
    <maxWeakCount>100</maxWeakCount></stageParams>
  <featureParams>
    <maxCatCount>0</maxCatCount>
    <featSize>1</featSize>
    <mode>BASIC</mode></featureParams>
  <stageNum>2</stageNum>
  <stages>
    <!-- stage 0 -->
    <_>
      <maxWeakCount>2</maxWeakCount>
      <stageThreshold>-2.9966509342193604e-01</stageThreshold>
      <weakClassifiers>
        <_>
          <internalNodes>
            0 -1 4 -1.1624468117952347e-01</internalNodes>
          <leafValues>
            8.0327868461608887e-01 -9.2459607124328613e-01</leafValues></_>
        <_>
          <internalNodes>
            0 -1 0 -2.3992024362087250e-02</internalNodes>
          <leafValues>
            6.2493097782135010e-01 -9.3177223205566406e-01</leafValues></_></weakClassifiers></_>
    <!-- stage 1 -->
    <_>
      <maxWeakCount>4</maxWeakCount>
      <stageThreshold>-2.4506223201751709e-01</stageThreshold>
      <weakClassifiers>
        <_>
          <internalNodes>
            0 -1 1 2.8917826712131500e-02</internalNodes>
          <leafValues>
            -7.7777779102325439e-01 7.1641790866851807e-01</leafValues></_>
        <_>
          <internalNodes>
            0 -1 3 -1.2698027491569519e-01</internalNodes>
          <leafValues>
            6.1383867263793945e-01 -9.1123443841934204e-01</leafValues></_>
        <_>
          <internalNodes>
            0 -1 2 -1.3669552281498909e-03</internalNodes>
          <leafValues>
            5.4062193632125854e-01 -9.0252882242202759e-01</leafValues></_>
        <_>
          <internalNodes>
            0 -1 5 3.3630248159170151e-02</internalNodes>
          <leafValues>
            -5.9086763858795166e-01 9.1972392797470093e-01</leafValues></_></weakClassifiers></_></stages>
  <features>
    <_>
      <rects>
        <_>
          0 2 10 14 -1.</_>
        <_>
          5 2 5 14 2.</_></rects>
      <tilted>0</tilted></_>
    <_>
      <rects>
        <_>
          1 7 18 9 -1.</_>
        <_>
          1 10 18 3 3.</_></rects>
      <tilted>0</tilted></_>
    <_>
      <rects>
        <_>
          3 19 1 12 -1.</_>
        <_>
          3 25 1 6 2.</_></rects>
      <tilted>0</tilted></_>
    <_>
      <rects>
        <_>
          6 0 30 34 -1.</_>
        <_>
          6 0 15 17 2.</_>
        <_>
          21 17 15 17 2.</_></rects>
      <tilted>0</tilted></_>
    <_>
      <rects>
        <_>
          6 1 32 20 -1.</_>
        <_>
          6 1 16 10 2.</_>
        <_>
          22 11 16 10 2.</_></rects>
      <tilted>0</tilted></_>
    <_>
      <rects>
        <_>
          32 5 8 24 -1.</_>
        <_>
          36 5 4 24 2.</_></rects>
      <tilted>0</tilted></_></features></cascade>
</opencv_storage>
